digraph Tree {
0 [label="flux <= -6.9084\ngini = 0.447468791111\nsamples = 15000", shape="box"] ;
1 [label="flux <= -7.3708\ngini = 0.0167343455154\nsamples = 9599", shape="box"] ;
0 -> 1 ;
2 [label="flux <= -7.7018\ngini = 0.00339737842101\nsamples = 9403", shape="box"] ;
1 -> 2 ;
3 [label="det_r <= 0.1667\ngini = 0.000215285250465\nsamples = 9289", shape="box"] ;
2 -> 3 ;
4 [label="log_L <= 52.1700\ngini = 0.0067566791152\nsamples = 295", shape="box"] ;
3 -> 4 ;
5 [label="gini = 0.0000\nsamples = 292\nvalue = [ 292.    0.]", shape="box"] ;
4 -> 5 ;
6 [label="gini = 0.4444\nsamples = 3\nvalue = [ 2.  1.]", shape="box"] ;
4 -> 6 ;
7 [label="gini = 0.0000\nsamples = 8994\nvalue = [ 8994.     0.]", shape="box"] ;
3 -> 7 ;
8 [label="theta <= 33.2055\ngini = 0.228531855956\nsamples = 114", shape="box"] ;
2 -> 8 ;
9 [label="E_peak <= -0.2101\ngini = 0.5\nsamples = 30", shape="box"] ;
8 -> 9 ;
10 [label="gini = 0.0000\nsamples = 7\nvalue = [ 7.  0.]", shape="box"] ;
9 -> 10 ;
11 [label="E_peak <= 2.0637\ngini = 0.453686200378\nsamples = 23", shape="box"] ;
9 -> 11 ;
12 [label="det_r <= 0.5505\ngini = 0.3046875\nsamples = 16", shape="box"] ;
11 -> 12 ;
13 [label="gini = 0.0000\nsamples = 9\nvalue = [ 0.  9.]", shape="box"] ;
12 -> 13 ;
14 [label="z <= 4.5471\ngini = 0.489795918367\nsamples = 7", shape="box"] ;
12 -> 14 ;
15 [label="ndet <= 21180.5000\ngini = 0.375\nsamples = 4", shape="box"] ;
14 -> 15 ;
16 [label="gini = 0.0000\nsamples = 1\nvalue = [ 0.  1.]", shape="box"] ;
15 -> 16 ;
17 [label="gini = 0.0000\nsamples = 3\nvalue = [ 3.  0.]", shape="box"] ;
15 -> 17 ;
18 [label="gini = 0.0000\nsamples = 3\nvalue = [ 0.  3.]", shape="box"] ;
14 -> 18 ;
19 [label="beta <= -1.9988\ngini = 0.408163265306\nsamples = 7", shape="box"] ;
11 -> 19 ;
20 [label="log_L <= 51.6857\ngini = 0.277777777778\nsamples = 6", shape="box"] ;
19 -> 20 ;
21 [label="gini = 0.0000\nsamples = 1\nvalue = [ 0.  1.]", shape="box"] ;
20 -> 21 ;
22 [label="gini = 0.0000\nsamples = 5\nvalue = [ 5.  0.]", shape="box"] ;
20 -> 22 ;
23 [label="gini = 0.0000\nsamples = 1\nvalue = [ 0.  1.]", shape="box"] ;
19 -> 23 ;
24 [label="gini = 0.0000\nsamples = 84\nvalue = [ 84.   0.]", shape="box"] ;
8 -> 24 ;
25 [label="det_r <= 1.1280\ngini = 0.44330487297\nsamples = 196", shape="box"] ;
1 -> 25 ;
26 [label="det_r <= 0.6338\ngini = 0.497233795506\nsamples = 121", shape="box"] ;
25 -> 26 ;
27 [label="log_L <= 53.3313\ngini = 0.380262562245\nsamples = 47", shape="box"] ;
26 -> 27 ;
28 [label="ndet <= 21899.5000\ngini = 0.283164782867\nsamples = 41", shape="box"] ;
27 -> 28 ;
29 [label="bgd25-100keV <= 3.8093\ngini = 0.48\nsamples = 5", shape="box"] ;
28 -> 29 ;
30 [label="gini = 0.0000\nsamples = 3\nvalue = [ 3.  0.]", shape="box"] ;
29 -> 30 ;
31 [label="gini = 0.0000\nsamples = 2\nvalue = [ 0.  2.]", shape="box"] ;
29 -> 31 ;
32 [label="E_peak <= -0.1130\ngini = 0.197530864198\nsamples = 36", shape="box"] ;
28 -> 32 ;
33 [label="gini = 0.0000\nsamples = 1\nvalue = [ 1.  0.]", shape="box"] ;
32 -> 33 ;
34 [label="bgd25-100keV <= 4.2681\ngini = 0.156734693878\nsamples = 35", shape="box"] ;
32 -> 34 ;
35 [label="beta <= -1.7975\ngini = 0.110726643599\nsamples = 34", shape="box"] ;
34 -> 35 ;
36 [label="bin_size_emit <= 0.1699\ngini = 0.060546875\nsamples = 32", shape="box"] ;
35 -> 36 ;
37 [label="gini = 0.5000\nsamples = 2\nvalue = [ 1.  1.]", shape="box"] ;
36 -> 37 ;
38 [label="gini = 0.0000\nsamples = 30\nvalue = [  0.  30.]", shape="box"] ;
36 -> 38 ;
39 [label="gini = 0.5000\nsamples = 2\nvalue = [ 1.  1.]", shape="box"] ;
35 -> 39 ;
40 [label="gini = 0.0000\nsamples = 1\nvalue = [ 1.  0.]", shape="box"] ;
34 -> 40 ;
41 [label="ndet <= 23640.5000\ngini = 0.277777777778\nsamples = 6", shape="box"] ;
27 -> 41 ;
42 [label="gini = 0.0000\nsamples = 1\nvalue = [ 0.  1.]", shape="box"] ;
41 -> 42 ;
43 [label="gini = 0.0000\nsamples = 5\nvalue = [ 5.  0.]", shape="box"] ;
41 -> 43 ;
44 [label="flux <= -7.0334\ngini = 0.482103725347\nsamples = 74", shape="box"] ;
26 -> 44 ;
45 [label="bgd25-100keV <= 3.7743\ngini = 0.379504132231\nsamples = 55", shape="box"] ;
44 -> 45 ;
46 [label="E_peak <= 0.3768\ngini = 0.408163265306\nsamples = 7", shape="box"] ;
45 -> 46 ;
47 [label="gini = 0.0000\nsamples = 2\nvalue = [ 2.  0.]", shape="box"] ;
46 -> 47 ;
48 [label="gini = 0.0000\nsamples = 5\nvalue = [ 0.  5.]", shape="box"] ;
46 -> 48 ;
49 [label="det_r <= 0.9167\ngini = 0.3046875\nsamples = 48", shape="box"] ;
45 -> 49 ;
50 [label="bgd_15-25keV <= 3.6724\ngini = 0.0798611111111\nsamples = 24", shape="box"] ;
49 -> 50 ;
51 [label="gini = 0.0000\nsamples = 18\nvalue = [ 18.   0.]", shape="box"] ;
50 -> 51 ;
52 [label="bgd_15-25keV <= 3.6746\ngini = 0.277777777778\nsamples = 6", shape="box"] ;
50 -> 52 ;
53 [label="gini = 0.0000\nsamples = 1\nvalue = [ 0.  1.]", shape="box"] ;
52 -> 53 ;
54 [label="gini = 0.0000\nsamples = 5\nvalue = [ 5.  0.]", shape="box"] ;
52 -> 54 ;
55 [label="bin_size_emit <= 0.2058\ngini = 0.444444444444\nsamples = 24", shape="box"] ;
49 -> 55 ;
56 [label="alpha <= -0.6550\ngini = 0.408163265306\nsamples = 7", shape="box"] ;
55 -> 56 ;
57 [label="gini = 0.0000\nsamples = 4\nvalue = [ 0.  4.]", shape="box"] ;
56 -> 57 ;
58 [label="gini = 0.4444\nsamples = 3\nvalue = [ 2.  1.]", shape="box"] ;
56 -> 58 ;
59 [label="alpha <= -0.6754\ngini = 0.290657439446\nsamples = 17", shape="box"] ;
55 -> 59 ;
60 [label="gini = 0.0000\nsamples = 13\nvalue = [ 13.   0.]", shape="box"] ;
59 -> 60 ;
61 [label="bgd25-100keV <= 3.8285\ngini = 0.375\nsamples = 4", shape="box"] ;
59 -> 61 ;
62 [label="gini = 0.0000\nsamples = 1\nvalue = [ 1.  0.]", shape="box"] ;
61 -> 62 ;
63 [label="gini = 0.0000\nsamples = 3\nvalue = [ 0.  3.]", shape="box"] ;
61 -> 63 ;
64 [label="ndet <= 20573.5000\ngini = 0.265927977839\nsamples = 19", shape="box"] ;
44 -> 64 ;
65 [label="gini = 0.0000\nsamples = 2\nvalue = [ 2.  0.]", shape="box"] ;
64 -> 65 ;
66 [label="ndet <= 29323.0000\ngini = 0.110726643599\nsamples = 17", shape="box"] ;
64 -> 66 ;
67 [label="gini = 0.0000\nsamples = 16\nvalue = [  0.  16.]", shape="box"] ;
66 -> 67 ;
68 [label="gini = 0.0000\nsamples = 1\nvalue = [ 1.  0.]", shape="box"] ;
66 -> 68 ;
69 [label="gini = 0.0000\nsamples = 75\nvalue = [ 75.   0.]", shape="box"] ;
25 -> 69 ;
70 [label="log_L <= 53.7641\ngini = 0.141240139412\nsamples = 5401", shape="box"] ;
0 -> 70 ;
71 [label="theta <= 48.6457\ngini = 0.25760983492\nsamples = 428", shape="box"] ;
70 -> 71 ;
72 [label="bgd_15-25keV <= 4.3833\ngini = 0.0937314024995\nsamples = 284", shape="box"] ;
71 -> 72 ;
73 [label="E_peak <= -0.2973\ngini = 0.0876524866086\nsamples = 283", shape="box"] ;
72 -> 73 ;
74 [label="beta <= -2.3659\ngini = 0.18\nsamples = 10", shape="box"] ;
73 -> 74 ;
75 [label="gini = 0.0000\nsamples = 1\nvalue = [ 0.  1.]", shape="box"] ;
74 -> 75 ;
76 [label="gini = 0.0000\nsamples = 9\nvalue = [ 9.  0.]", shape="box"] ;
74 -> 76 ;
77 [label="z <= 0.0045\ngini = 0.0288746662373\nsamples = 273", shape="box"] ;
73 -> 77 ;
78 [label="gini = 0.0000\nsamples = 1\nvalue = [ 1.  0.]", shape="box"] ;
77 -> 78 ;
79 [label="E_peak <= -0.0492\ngini = 0.0218155276817\nsamples = 272", shape="box"] ;
77 -> 79 ;
80 [label="log_L <= 52.4584\ngini = 0.345679012346\nsamples = 9", shape="box"] ;
79 -> 80 ;
81 [label="gini = 0.0000\nsamples = 1\nvalue = [ 1.  0.]", shape="box"] ;
80 -> 81 ;
82 [label="bgd_15-50keV <= 3.8341\ngini = 0.21875\nsamples = 8", shape="box"] ;
80 -> 82 ;
83 [label="gini = 0.0000\nsamples = 1\nvalue = [ 1.  0.]", shape="box"] ;
82 -> 83 ;
84 [label="gini = 0.0000\nsamples = 7\nvalue = [ 0.  7.]", shape="box"] ;
82 -> 84 ;
85 [label="ndet <= 20583.0000\ngini = 0.00757564805043\nsamples = 263", shape="box"] ;
79 -> 85 ;
86 [label="bgd_15-25keV <= 3.7294\ngini = 0.18\nsamples = 10", shape="box"] ;
85 -> 86 ;
87 [label="gini = 0.0000\nsamples = 9\nvalue = [ 0.  9.]", shape="box"] ;
86 -> 87 ;
88 [label="gini = 0.0000\nsamples = 1\nvalue = [ 1.  0.]", shape="box"] ;
86 -> 88 ;
89 [label="gini = 0.0000\nsamples = 253\nvalue = [   0.  253.]", shape="box"] ;
85 -> 89 ;
90 [label="gini = 0.0000\nsamples = 1\nvalue = [ 1.  0.]", shape="box"] ;
72 -> 90 ;
91 [label="flux <= -6.3419\ngini = 0.457465277778\nsamples = 144", shape="box"] ;
71 -> 91 ;
92 [label="det_r <= 1.3509\ngini = 0.331425598335\nsamples = 62", shape="box"] ;
91 -> 92 ;
93 [label="bgd25-100keV <= 3.8355\ngini = 0.486111111111\nsamples = 24", shape="box"] ;
92 -> 93 ;
94 [label="E_peak <= 0.1005\ngini = 0.48\nsamples = 15", shape="box"] ;
93 -> 94 ;
95 [label="gini = 0.0000\nsamples = 3\nvalue = [ 3.  0.]", shape="box"] ;
94 -> 95 ;
96 [label="flux <= -6.6564\ngini = 0.375\nsamples = 12", shape="box"] ;
94 -> 96 ;
97 [label="ndet <= 26886.0000\ngini = 0.5\nsamples = 6", shape="box"] ;
96 -> 97 ;
98 [label="gini = 0.0000\nsamples = 3\nvalue = [ 3.  0.]", shape="box"] ;
97 -> 98 ;
99 [label="gini = 0.0000\nsamples = 3\nvalue = [ 0.  3.]", shape="box"] ;
97 -> 99 ;
100 [label="gini = 0.0000\nsamples = 6\nvalue = [ 0.  6.]", shape="box"] ;
96 -> 100 ;
101 [label="bgd50-350keV <= 3.9641\ngini = 0.197530864198\nsamples = 9", shape="box"] ;
93 -> 101 ;
102 [label="gini = 0.0000\nsamples = 8\nvalue = [ 8.  0.]", shape="box"] ;
101 -> 102 ;
103 [label="gini = 0.0000\nsamples = 1\nvalue = [ 0.  1.]", shape="box"] ;
101 -> 103 ;
104 [label="theta <= 56.6410\ngini = 0.145429362881\nsamples = 38", shape="box"] ;
92 -> 104 ;
105 [label="gini = 0.0000\nsamples = 20\nvalue = [ 20.   0.]", shape="box"] ;
104 -> 105 ;
106 [label="log_L <= 53.7278\ngini = 0.277777777778\nsamples = 18", shape="box"] ;
104 -> 106 ;
107 [label="bgd25-100keV <= 3.8086\ngini = 0.207612456747\nsamples = 17", shape="box"] ;
106 -> 107 ;
108 [label="E_peak <= 0.9897\ngini = 0.408163265306\nsamples = 7", shape="box"] ;
107 -> 108 ;
109 [label="gini = 0.4444\nsamples = 3\nvalue = [ 1.  2.]", shape="box"] ;
108 -> 109 ;
110 [label="gini = 0.0000\nsamples = 4\nvalue = [ 4.  0.]", shape="box"] ;
108 -> 110 ;
111 [label="gini = 0.0000\nsamples = 10\nvalue = [ 10.   0.]", shape="box"] ;
107 -> 111 ;
112 [label="gini = 0.0000\nsamples = 1\nvalue = [ 0.  1.]", shape="box"] ;
106 -> 112 ;
113 [label="E_peak <= -0.1958\ngini = 0.0475907198096\nsamples = 82", shape="box"] ;
91 -> 113 ;
114 [label="gini = 0.0000\nsamples = 2\nvalue = [ 2.  0.]", shape="box"] ;
113 -> 114 ;
115 [label="gini = 0.0000\nsamples = 80\nvalue = [  0.  80.]", shape="box"] ;
113 -> 115 ;
116 [label="E_peak <= -0.3994\ngini = 0.130161953576\nsamples = 4973", shape="box"] ;
70 -> 116 ;
117 [label="E_peak <= -0.5419\ngini = 0.249759506564\nsamples = 376", shape="box"] ;
116 -> 117 ;
118 [label="E_peak <= -0.6728\ngini = 0.099343132154\nsamples = 248", shape="box"] ;
117 -> 118 ;
119 [label="beta <= -2.8702\ngini = 0.0279664000805\nsamples = 141", shape="box"] ;
118 -> 119 ;
120 [label="bgd_15-50keV <= 3.8474\ngini = 0.345679012346\nsamples = 9", shape="box"] ;
119 -> 120 ;
121 [label="gini = 0.4444\nsamples = 3\nvalue = [ 1.  2.]", shape="box"] ;
120 -> 121 ;
122 [label="gini = 0.0000\nsamples = 6\nvalue = [ 6.  0.]", shape="box"] ;
120 -> 122 ;
123 [label="gini = 0.0000\nsamples = 132\nvalue = [ 132.    0.]", shape="box"] ;
119 -> 123 ;
124 [label="E_peak <= -0.6531\ngini = 0.184470259411\nsamples = 107", shape="box"] ;
118 -> 124 ;
125 [label="theta <= 48.6457\ngini = 0.444444444444\nsamples = 15", shape="box"] ;
124 -> 125 ;
126 [label="alpha <= -1.2941\ngini = 0.493827160494\nsamples = 9", shape="box"] ;
125 -> 126 ;
127 [label="gini = 0.0000\nsamples = 5\nvalue = [ 0.  5.]", shape="box"] ;
126 -> 127 ;
128 [label="gini = 0.0000\nsamples = 4\nvalue = [ 4.  0.]", shape="box"] ;
126 -> 128 ;
129 [label="gini = 0.0000\nsamples = 6\nvalue = [ 6.  0.]", shape="box"] ;
125 -> 129 ;
130 [label="bgd_15-50keV <= 3.8934\ngini = 0.121928166352\nsamples = 92", shape="box"] ;
124 -> 130 ;
131 [label="alpha <= -1.3367\ngini = 0.0555102040816\nsamples = 70", shape="box"] ;
130 -> 131 ;
132 [label="gini = 0.4444\nsamples = 3\nvalue = [ 1.  2.]", shape="box"] ;
131 -> 132 ;
133 [label="gini = 0.0000\nsamples = 67\nvalue = [ 67.   0.]", shape="box"] ;
131 -> 133 ;
134 [label="bin_size_emit <= 0.3039\ngini = 0.297520661157\nsamples = 22", shape="box"] ;
130 -> 134 ;
135 [label="alpha <= -1.3717\ngini = 0.18836565097\nsamples = 19", shape="box"] ;
134 -> 135 ;
136 [label="gini = 0.0000\nsamples = 2\nvalue = [ 0.  2.]", shape="box"] ;
135 -> 136 ;
137 [label="gini = 0.0000\nsamples = 17\nvalue = [ 17.   0.]", shape="box"] ;
135 -> 137 ;
138 [label="gini = 0.4444\nsamples = 3\nvalue = [ 1.  2.]", shape="box"] ;
134 -> 138 ;
139 [label="alpha <= -1.0304\ngini = 0.44091796875\nsamples = 128", shape="box"] ;
117 -> 139 ;
140 [label="log_L <= 56.4591\ngini = 0.362811791383\nsamples = 42", shape="box"] ;
139 -> 140 ;
141 [label="ndet <= 28336.5000\ngini = 0.345679012346\nsamples = 9", shape="box"] ;
140 -> 141 ;
142 [label="gini = 0.0000\nsamples = 7\nvalue = [ 7.  0.]", shape="box"] ;
141 -> 142 ;
143 [label="gini = 0.0000\nsamples = 2\nvalue = [ 0.  2.]", shape="box"] ;
141 -> 143 ;
144 [label="alpha <= -1.5025\ngini = 0.165289256198\nsamples = 33", shape="box"] ;
140 -> 144 ;
145 [label="gini = 0.0000\nsamples = 1\nvalue = [ 1.  0.]", shape="box"] ;
144 -> 145 ;
146 [label="bgd25-100keV <= 3.8735\ngini = 0.1171875\nsamples = 32", shape="box"] ;
144 -> 146 ;
147 [label="gini = 0.0000\nsamples = 29\nvalue = [  0.  29.]", shape="box"] ;
146 -> 147 ;
148 [label="gini = 0.4444\nsamples = 3\nvalue = [ 2.  1.]", shape="box"] ;
146 -> 148 ;
149 [label="bin_size_emit <= 0.4191\ngini = 0.205516495403\nsamples = 86", shape="box"] ;
139 -> 149 ;
150 [label="bgd50-350keV <= 3.9449\ngini = 0.1596875\nsamples = 80", shape="box"] ;
149 -> 150 ;
151 [label="E_peak <= -0.4660\ngini = 0.140362121455\nsamples = 79", shape="box"] ;
150 -> 151 ;
152 [label="z <= 3.6213\ngini = 0.0392\nsamples = 50", shape="box"] ;
151 -> 152 ;
153 [label="bin_size_emit <= 0.3499\ngini = 0.21875\nsamples = 8", shape="box"] ;
152 -> 153 ;
154 [label="gini = 0.0000\nsamples = 1\nvalue = [ 0.  1.]", shape="box"] ;
153 -> 154 ;
155 [label="gini = 0.0000\nsamples = 7\nvalue = [ 7.  0.]", shape="box"] ;
153 -> 155 ;
156 [label="gini = 0.0000\nsamples = 42\nvalue = [ 42.   0.]", shape="box"] ;
152 -> 156 ;
157 [label="beta <= -2.5166\ngini = 0.285374554102\nsamples = 29", shape="box"] ;
151 -> 157 ;
158 [label="alpha <= -0.6128\ngini = 0.489795918367\nsamples = 7", shape="box"] ;
157 -> 158 ;
159 [label="gini = 0.0000\nsamples = 4\nvalue = [ 0.  4.]", shape="box"] ;
158 -> 159 ;
160 [label="gini = 0.0000\nsamples = 3\nvalue = [ 3.  0.]", shape="box"] ;
158 -> 160 ;
161 [label="det_phi <= -2.0622\ngini = 0.0867768595041\nsamples = 22", shape="box"] ;
157 -> 161 ;
162 [label="gini = 0.0000\nsamples = 1\nvalue = [ 0.  1.]", shape="box"] ;
161 -> 162 ;
163 [label="gini = 0.0000\nsamples = 21\nvalue = [ 21.   0.]", shape="box"] ;
161 -> 163 ;
164 [label="gini = 0.0000\nsamples = 1\nvalue = [ 0.  1.]", shape="box"] ;
150 -> 164 ;
165 [label="ndet <= 23673.0000\ngini = 0.5\nsamples = 6", shape="box"] ;
149 -> 165 ;
166 [label="gini = 0.0000\nsamples = 2\nvalue = [ 2.  0.]", shape="box"] ;
165 -> 166 ;
167 [label="beta <= -2.5374\ngini = 0.375\nsamples = 4", shape="box"] ;
165 -> 167 ;
168 [label="gini = 0.0000\nsamples = 1\nvalue = [ 1.  0.]", shape="box"] ;
167 -> 168 ;
169 [label="gini = 0.0000\nsamples = 3\nvalue = [ 0.  3.]", shape="box"] ;
167 -> 169 ;
170 [label="z <= 0.0093\ngini = 0.0116777978318\nsamples = 4597", shape="box"] ;
116 -> 170 ;
171 [label="gini = 0.0000\nsamples = 3\nvalue = [ 3.  0.]", shape="box"] ;
170 -> 171 ;
172 [label="E_peak <= -0.3295\ngini = 0.0103938263249\nsamples = 4594", shape="box"] ;
170 -> 172 ;
173 [label="flux <= -4.6399\ngini = 0.361495844875\nsamples = 76", shape="box"] ;
172 -> 173 ;
174 [label="gini = 0.0000\nsamples = 6\nvalue = [ 6.  0.]", shape="box"] ;
173 -> 174 ;
175 [label="ndet <= 20932.0000\ngini = 0.284081632653\nsamples = 70", shape="box"] ;
173 -> 175 ;
176 [label="bgd_15-50keV <= 3.9367\ngini = 0.277777777778\nsamples = 6", shape="box"] ;
175 -> 176 ;
177 [label="gini = 0.0000\nsamples = 5\nvalue = [ 5.  0.]", shape="box"] ;
176 -> 177 ;
178 [label="gini = 0.0000\nsamples = 1\nvalue = [ 0.  1.]", shape="box"] ;
176 -> 178 ;
179 [label="beta <= -1.7432\ngini = 0.19482421875\nsamples = 64", shape="box"] ;
175 -> 179 ;
180 [label="alpha <= -0.1727\ngini = 0.148283038502\nsamples = 62", shape="box"] ;
179 -> 180 ;
181 [label="bgd_15-25keV <= 3.5092\ngini = 0.095\nsamples = 60", shape="box"] ;
180 -> 181 ;
182 [label="gini = 0.0000\nsamples = 2\nvalue = [ 2.  0.]", shape="box"] ;
181 -> 182 ;
183 [label="log_L <= 55.2689\ngini = 0.0338882282996\nsamples = 58", shape="box"] ;
181 -> 183 ;
184 [label="gini = 0.0000\nsamples = 1\nvalue = [ 1.  0.]", shape="box"] ;
183 -> 184 ;
185 [label="gini = 0.0000\nsamples = 57\nvalue = [  0.  57.]", shape="box"] ;
183 -> 185 ;
186 [label="gini = 0.0000\nsamples = 2\nvalue = [ 2.  0.]", shape="box"] ;
180 -> 186 ;
187 [label="gini = 0.0000\nsamples = 2\nvalue = [ 2.  0.]", shape="box"] ;
179 -> 187 ;
188 [label="log_L <= 54.4433\ngini = 0.00265251521581\nsamples = 4518", shape="box"] ;
172 -> 188 ;
189 [label="log_L <= 54.4421\ngini = 0.0445864476861\nsamples = 263", shape="box"] ;
188 -> 189 ;
190 [label="E_peak <= -0.2868\ngini = 0.0374395431502\nsamples = 262", shape="box"] ;
189 -> 190 ;
191 [label="gini = 0.0000\nsamples = 1\nvalue = [ 1.  0.]", shape="box"] ;
190 -> 191 ;
192 [label="bin_size_emit <= 0.1467\ngini = 0.0301815886437\nsamples = 261", shape="box"] ;
190 -> 192 ;
193 [label="gini = 0.0000\nsamples = 1\nvalue = [ 1.  0.]", shape="box"] ;
192 -> 193 ;
194 [label="flux <= -6.7699\ngini = 0.0228106508876\nsamples = 260", shape="box"] ;
192 -> 194 ;
195 [label="theta <= 51.4602\ngini = 0.48\nsamples = 5", shape="box"] ;
194 -> 195 ;
196 [label="gini = 0.0000\nsamples = 3\nvalue = [ 0.  3.]", shape="box"] ;
195 -> 196 ;
197 [label="gini = 0.0000\nsamples = 2\nvalue = [ 2.  0.]", shape="box"] ;
195 -> 197 ;
198 [label="bgd_15-50keV <= 3.9981\ngini = 0.0078123798539\nsamples = 255", shape="box"] ;
194 -> 198 ;
199 [label="gini = 0.0000\nsamples = 245\nvalue = [   0.  245.]", shape="box"] ;
198 -> 199 ;
200 [label="bgd25-100keV <= 3.8932\ngini = 0.18\nsamples = 10", shape="box"] ;
198 -> 200 ;
201 [label="gini = 0.0000\nsamples = 1\nvalue = [ 1.  0.]", shape="box"] ;
200 -> 201 ;
202 [label="gini = 0.0000\nsamples = 9\nvalue = [ 0.  9.]", shape="box"] ;
200 -> 202 ;
203 [label="gini = 0.0000\nsamples = 1\nvalue = [ 1.  0.]", shape="box"] ;
189 -> 203 ;
204 [label="gini = 0.0000\nsamples = 4255\nvalue = [    0.  4255.]", shape="box"] ;
188 -> 204 ;
}